digraph Tree {
node [shape=box] ;
0 [label="X[0] <= 487.5\nimpurity = 2170.8393\nsamples = 3146\nvalue = [[86.4996]\n[72.7108]\n[54.027]]"] ;
1 [label="X[0] <= 190.5\nimpurity = 1886.6409\nsamples = 1703\nvalue = [[111.2048]\n[102.3087]\n[65.0434]]"] ;
0 -> 1 [labeldistance=2.5, labelangle=45, headlabel="True"] ;
2 [label="X[0] <= 51.5\nimpurity = 1079.3044\nsamples = 703\nvalue = [[124.866]\n[128.3852]\n[79.5567]]"] ;
1 -> 2 ;
3 [label="X[0] <= 9.5\nimpurity = 187.5628\nsamples = 180\nvalue = [[99.0201]\n[117.6589]\n[73.194]]"] ;
2 -> 3 ;
4 [label="X[0] <= 1.5\nimpurity = 134.6761\nsamples = 41\nvalue = [[74.7857]\n[104.2714]\n[67.6286]]"] ;
3 -> 4 ;
5 [label="X[1] <= 350.0\nimpurity = 191.4971\nsamples = 10\nvalue = [[63.4706]\n[91.6471]\n[57.4706]]"] ;
4 -> 5 ;
6 [label="X[1] <= 296.5\nimpurity = 48.6094\nsamples = 6\nvalue = [[77.625]\n[103.375]\n[60.125]]"] ;
5 -> 6 ;
7 [label="impurity = 32.898\nsamples = 5\nvalue = [[78.7143]\n[105.0]\n[62.2857]]"] ;
6 -> 7 ;
8 [label="impurity = 0.0\nsamples = 1\nvalue = [[70.0]\n[92.0]\n[45.0]]"] ;
6 -> 8 ;
9 [label="X[1] <= 463.5\nimpurity = 125.4568\nsamples = 4\nvalue = [[50.8889]\n[81.2222]\n[55.1111]]"] ;
5 -> 9 ;
10 [label="impurity = 66.0\nsamples = 2\nvalue = [[42.0]\n[72.0]\n[42.0]]"] ;
9 -> 10 ;
11 [label="impurity = 11.76\nsamples = 2\nvalue = [[58.0]\n[88.6]\n[65.6]]"] ;
9 -> 11 ;
12 [label="X[1] <= 541.0\nimpurity = 61.2939\nsamples = 31\nvalue = [[78.4151]\n[108.3208]\n[70.8868]]"] ;
4 -> 12 ;
13 [label="X[0] <= 7.5\nimpurity = 57.2889\nsamples = 27\nvalue = [[78.3333]\n[107.1333]\n[68.7333]]"] ;
12 -> 13 ;
14 [label="impurity = 51.2144\nsamples = 24\nvalue = [[77.561]\n[106.2683]\n[67.6585]]"] ;
13 -> 14 ;
15 [label="impurity = 23.4583\nsamples = 3\nvalue = [[86.25]\n[116.0]\n[79.75]]"] ;
13 -> 15 ;
16 [label="X[1] <= 547.5\nimpurity = 8.6198\nsamples = 4\nvalue = [[78.875]\n[115.0]\n[83.0]]"] ;
12 -> 16 ;
17 [label="impurity = 0.0\nsamples = 1\nvalue = [[83.0]\n[124.0]\n[82.0]]"] ;
16 -> 17 ;
18 [label="impurity = 4.4626\nsamples = 3\nvalue = [[78.2857]\n[113.7143]\n[83.1429]]"] ;
16 -> 18 ;
19 [label="X[0] <= 37.5\nimpurity = 97.6308\nsamples = 139\nvalue = [[106.4279]\n[121.7511]\n[74.8952]]"] ;
3 -> 19 ;
20 [label="X[1] <= 599.0\nimpurity = 102.2348\nsamples = 101\nvalue = [[103.4424]\n[120.2727]\n[74.1152]]"] ;
19 -> 20 ;
21 [label="X[1] <= 554.0\nimpurity = 100.1797\nsamples = 100\nvalue = [[103.7233]\n[121.0]\n[74.3082]]"] ;
20 -> 21 ;
22 [label="impurity = 96.313\nsamples = 92\nvalue = [[103.2517]\n[120.2109]\n[73.2041]]"] ;
21 -> 22 ;
23 [label="impurity = 35.8704\nsamples = 8\nvalue = [[109.5]\n[130.6667]\n[87.8333]]"] ;
21 -> 23 ;
24 [label="impurity = 0.0\nsamples = 1\nvalue = [[96.0]\n[101.0]\n[69.0]]"] ;
20 -> 24 ;
25 [label="X[1] <= 54.0\nimpurity = 49.7614\nsamples = 38\nvalue = [[114.125]\n[125.5625]\n[76.9062]]"] ;
19 -> 25 ;
26 [label="impurity = 0.0\nsamples = 1\nvalue = [[134.0]\n[150.0]\n[105.0]]"] ;
25 -> 26 ;
27 [label="X[1] <= 592.5\nimpurity = 40.9759\nsamples = 37\nvalue = [[113.8095]\n[125.1746]\n[76.4603]]"] ;
25 -> 27 ;
28 [label="impurity = 35.8893\nsamples = 36\nvalue = [[114.3607]\n[125.6721]\n[76.2131]]"] ;
27 -> 28 ;
29 [label="impurity = 0.0\nsamples = 1\nvalue = [[97.0]\n[110.0]\n[84.0]]"] ;
27 -> 29 ;
30 [label="X[1] <= 308.5\nimpurity = 1267.8669\nsamples = 523\nvalue = [[134.2902]\n[132.2963]\n[81.8768]]"] ;
2 -> 30 ;
31 [label="X[0] <= 114.5\nimpurity = 817.7295\nsamples = 271\nvalue = [[145.4305]\n[141.9596]\n[85.5]]"] ;
30 -> 31 ;
32 [label="X[1] <= 245.5\nimpurity = 280.6747\nsamples = 132\nvalue = [[129.2838]\n[134.7117]\n[82.3243]]"] ;
31 -> 32 ;
33 [label="X[0] <= 81.5\nimpurity = 153.6128\nsamples = 110\nvalue = [[130.4216]\n[138.3189]\n[85.1676]]"] ;
32 -> 33 ;
34 [label="impurity = 113.1259\nsamples = 52\nvalue = [[123.2209]\n[132.7791]\n[80.3256]]"] ;
33 -> 34 ;
35 [label="impurity = 131.4348\nsamples = 58\nvalue = [[136.6768]\n[143.1313]\n[89.3737]]"] ;
33 -> 35 ;
36 [label="X[0] <= 90.0\nimpurity = 692.0774\nsamples = 22\nvalue = [[123.5946]\n[116.6757]\n[68.1081]]"] ;
32 -> 36 ;
37 [label="impurity = 60.3009\nsamples = 14\nvalue = [[131.7778]\n[136.0741]\n[84.0741]]"] ;
36 -> 37 ;
38 [label="impurity = 72.9533\nsamples = 8\nvalue = [[101.5]\n[64.3]\n[25.0]]"] ;
36 -> 38 ;
39 [label="X[1] <= 230.0\nimpurity = 1137.3118\nsamples = 139\nvalue = [[161.433]\n[149.1429]\n[88.6473]]"] ;
31 -> 39 ;
40 [label="X[1] <= 204.5\nimpurity = 955.0028\nsamples = 101\nvalue = [[144.1534]\n[142.4479]\n[91.7914]]"] ;
39 -> 40 ;
41 [label="impurity = 219.9303\nsamples = 87\nvalue = [[151.1194]\n[155.1045]\n[101.2537]]"] ;
40 -> 41 ;
42 [label="impurity = 1769.5379\nsamples = 14\nvalue = [[111.9655]\n[83.9655]\n[48.069]]"] ;
40 -> 42 ;
43 [label="X[0] <= 123.5\nimpurity = 468.906\nsamples = 38\nvalue = [[207.6066]\n[167.0328]\n[80.2459]]"] ;
39 -> 43 ;
44 [label="impurity = 69.8333\nsamples = 2\nvalue = [[139.5]\n[99.5]\n[38.0]]"] ;
43 -> 44 ;
45 [label="impurity = 354.1149\nsamples = 36\nvalue = [[209.9153]\n[169.322]\n[81.678]]"] ;
43 -> 45 ;
46 [label="X[1] <= 399.5\nimpurity = 1603.6756\nsamples = 252\nvalue = [[121.0053]\n[120.7727]\n[77.5561]]"] ;
30 -> 46 ;
47 [label="X[0] <= 92.0\nimpurity = 2051.3176\nsamples = 77\nvalue = [[82.307]\n[66.3596]\n[44.7368]]"] ;
46 -> 47 ;
48 [label="X[1] <= 309.5\nimpurity = 784.0391\nsamples = 17\nvalue = [[119.1739]\n[124.2609]\n[79.0435]]"] ;
47 -> 48 ;
49 [label="impurity = 0.0\nsamples = 1\nvalue = [[68.0]\n[37.0]\n[17.0]]"] ;
48 -> 49 ;
50 [label="impurity = 369.0642\nsamples = 16\nvalue = [[124.0476]\n[132.5714]\n[84.9524]]"] ;
48 -> 50 ;
51 [label="X[1] <= 334.0\nimpurity = 1750.1125\nsamples = 60\nvalue = [[72.989]\n[51.7253]\n[36.0659]]"] ;
47 -> 51 ;
52 [label="impurity = 1565.7249\nsamples = 19\nvalue = [[114.2069]\n[80.4483]\n[39.1724]]"] ;
51 -> 52 ;
53 [label="impurity = 1256.5713\nsamples = 41\nvalue = [[53.7097]\n[38.2903]\n[34.6129]]"] ;
51 -> 53 ;
54 [label="X[0] <= 90.5\nimpurity = 243.6469\nsamples = 175\nvalue = [[137.9731]\n[144.6308]\n[91.9462]]"] ;
46 -> 54 ;
55 [label="X[1] <= 472.5\nimpurity = 129.4415\nsamples = 51\nvalue = [[124.5641]\n[133.7821]\n[84.1667]]"] ;
54 -> 55 ;
56 [label="impurity = 98.4565\nsamples = 20\nvalue = [[121.0968]\n[128.4194]\n[76.1613]]"] ;
55 -> 56 ;
57 [label="impurity = 111.6155\nsamples = 31\nvalue = [[126.8511]\n[137.3191]\n[89.4468]]"] ;
55 -> 57 ;
58 [label="X[1] <= 465.0\nimpurity = 219.5277\nsamples = 124\nvalue = [[143.7198]\n[149.2802]\n[95.2802]]"] ;
54 -> 58 ;
59 [label="impurity = 258.9818\nsamples = 38\nvalue = [[132.5455]\n[140.4545]\n[89.3636]]"] ;
58 -> 59 ;
60 [label="impurity = 153.2541\nsamples = 86\nvalue = [[148.5591]\n[153.1024]\n[97.8425]]"] ;
58 -> 60 ;
61 [label="X[1] <= 353.5\nimpurity = 2025.0415\nsamples = 1000\nvalue = [[101.7975]\n[84.352]\n[55.0492]]"] ;
1 -> 61 ;
62 [label="X[1] <= 233.5\nimpurity = 2263.6566\nsamples = 552\nvalue = [[117.8973]\n[93.3281]\n[55.3616]]"] ;
61 -> 62 ;
63 [label="X[0] <= 431.0\nimpurity = 1063.8361\nsamples = 371\nvalue = [[91.3061]\n[73.7823]\n[49.9541]]"] ;
62 -> 63 ;
64 [label="X[1] <= 182.5\nimpurity = 832.8506\nsamples = 305\nvalue = [[83.4101]\n[70.8161]\n[50.852]]"] ;
63 -> 64 ;
65 [label="X[0] <= 240.5\nimpurity = 552.3869\nsamples = 227\nvalue = [[87.1618]\n[81.4559]\n[57.55]]"] ;
64 -> 65 ;
66 [label="impurity = 391.9607\nsamples = 51\nvalue = [[104.9041]\n[105.3288]\n[70.2877]]"] ;
65 -> 66 ;
67 [label="impurity = 474.7461\nsamples = 176\nvalue = [[82.3109]\n[74.9288]\n[54.0674]]"] ;
65 -> 67 ;
68 [label="X[0] <= 228.5\nimpurity = 1028.1438\nsamples = 78\nvalue = [[73.8195]\n[43.6165]\n[33.7293]]"] ;
64 -> 68 ;
69 [label="impurity = 1623.1941\nsamples = 8\nvalue = [[126.2]\n[86.4667]\n[47.4]]"] ;
68 -> 69 ;
70 [label="impurity = 724.8462\nsamples = 70\nvalue = [[67.161]\n[38.1695]\n[31.9915]]"] ;
68 -> 70 ;
71 [label="X[1] <= 198.5\nimpurity = 1509.5064\nsamples = 66\nvalue = [[123.7826]\n[85.9826]\n[46.2609]]"] ;
63 -> 71 ;
72 [label="X[1] <= 158.0\nimpurity = 662.7759\nsamples = 48\nvalue = [[103.6962]\n[68.038]\n[43.2911]]"] ;
71 -> 72 ;
73 [label="impurity = 318.362\nsamples = 35\nvalue = [[118.2833]\n[79.0667]\n[47.75]]"] ;
72 -> 73 ;
74 [label="impurity = 199.7322\nsamples = 13\nvalue = [[57.6316]\n[33.2105]\n[29.2105]]"] ;
72 -> 74 ;
75 [label="X[0] <= 461.0\nimpurity = 1651.804\nsamples = 18\nvalue = [[167.8611]\n[125.3611]\n[52.7778]]"] ;
71 -> 75 ;
76 [label="impurity = 807.7692\nsamples = 9\nvalue = [[202.9474]\n[160.5263]\n[67.2105]]"] ;
75 -> 76 ;
77 [label="impurity = 484.0138\nsamples = 9\nvalue = [[128.6471]\n[86.0588]\n[36.6471]]"] ;
75 -> 77 ;
78 [label="X[0] <= 382.5\nimpurity = 2483.8485\nsamples = 181\nvalue = [[168.6623]\n[130.6429]\n[65.6851]]"] ;
62 -> 78 ;
79 [label="X[0] <= 274.5\nimpurity = 1957.4666\nsamples = 122\nvalue = [[143.799]\n[105.2647]\n[52.7206]]"] ;
78 -> 79 ;
80 [label="X[1] <= 347.0\nimpurity = 1331.5257\nsamples = 52\nvalue = [[173.044]\n[130.2088]\n[63.2637]]"] ;
79 -> 80 ;
81 [label="impurity = 921.8064\nsamples = 50\nvalue = [[178.8621]\n[135.1494]\n[65.1034]]"] ;
80 -> 81 ;
82 [label="impurity = 75.375\nsamples = 2\nvalue = [[46.5]\n[22.75]\n[23.25]]"] ;
80 -> 82 ;
83 [label="X[1] <= 247.5\nimpurity = 1691.6742\nsamples = 70\nvalue = [[120.2478]\n[85.177]\n[44.2301]]"] ;
79 -> 83 ;
84 [label="impurity = 280.9354\nsamples = 8\nvalue = [[62.9286]\n[36.9286]\n[31.4286]]"] ;
83 -> 84 ;
85 [label="impurity = 1580.3315\nsamples = 62\nvalue = [[128.3535]\n[92.0]\n[46.0404]]"] ;
83 -> 85 ;
86 [label="X[0] <= 481.0\nimpurity = 746.7228\nsamples = 59\nvalue = [[217.4327]\n[180.4231]\n[91.1154]]"] ;
78 -> 86 ;
87 [label="X[0] <= 420.5\nimpurity = 436.348\nsamples = 53\nvalue = [[222.5789]\n[185.6105]\n[93.7579]]"] ;
86 -> 87 ;
88 [label="impurity = 357.6321\nsamples = 21\nvalue = [[212.5]\n[173.8182]\n[81.1591]]"] ;
87 -> 88 ;
89 [label="impurity = 290.3183\nsamples = 32\nvalue = [[231.2745]\n[195.7843]\n[104.6275]]"] ;
87 -> 89 ;
90 [label="X[1] <= 266.0\nimpurity = 1568.0905\nsamples = 6\nvalue = [[163.1111]\n[125.6667]\n[63.2222]]"] ;
86 -> 90 ;
91 [label="impurity = 0.0\nsamples = 1\nvalue = [[97.0]\n[54.0]\n[12.0]]"] ;
90 -> 91 ;
92 [label="impurity = 530.7483\nsamples = 5\nvalue = [[182.0]\n[146.1429]\n[77.8571]]"] ;
90 -> 92 ;
93 [label="X[1] <= 487.5\nimpurity = 1421.3799\nsamples = 448\nvalue = [[82.0096]\n[73.3196]\n[54.6653]]"] ;
61 -> 93 ;
94 [label="X[1] <= 420.5\nimpurity = 1059.1978\nsamples = 254\nvalue = [[63.9951]\n[52.3309]\n[42.6691]]"] ;
93 -> 94 ;
95 [label="X[0] <= 380.5\nimpurity = 909.2306\nsamples = 134\nvalue = [[60.589]\n[38.379]\n[33.3516]]"] ;
94 -> 95 ;
96 [label="X[0] <= 362.0\nimpurity = 327.2023\nsamples = 96\nvalue = [[43.4654]\n[26.6604]\n[32.6478]]"] ;
95 -> 96 ;
97 [label="impurity = 290.6254\nsamples = 87\nvalue = [[40.5753]\n[25.5685]\n[33.4795]]"] ;
96 -> 97 ;
98 [label="impurity = 269.2978\nsamples = 9\nvalue = [[75.9231]\n[38.9231]\n[23.3077]]"] ;
96 -> 98 ;
99 [label="X[0] <= 469.0\nimpurity = 1061.8603\nsamples = 38\nvalue = [[105.9667]\n[69.4333]\n[35.2167]]"] ;
95 -> 99 ;
100 [label="impurity = 818.324\nsamples = 32\nvalue = [[118.22]\n[76.86]\n[34.8]]"] ;
99 -> 100 ;
101 [label="impurity = 224.81\nsamples = 6\nvalue = [[44.7]\n[32.3]\n[37.3]]"] ;
99 -> 101 ;
102 [label="X[0] <= 358.5\nimpurity = 985.3189\nsamples = 120\nvalue = [[68.0054]\n[68.7581]\n[53.6398]]"] ;
94 -> 102 ;
103 [label="X[0] <= 246.5\nimpurity = 457.8284\nsamples = 73\nvalue = [[75.2212]\n[86.3628]\n[63.5044]]"] ;
102 -> 103 ;
104 [label="impurity = 239.7415\nsamples = 25\nvalue = [[87.8421]\n[104.3158]\n[74.4211]]"] ;
103 -> 104 ;
105 [label="impurity = 415.4549\nsamples = 48\nvalue = [[68.8267]\n[77.2667]\n[57.9733]]"] ;
103 -> 105 ;
106 [label="X[0] <= 442.0\nimpurity = 1197.9967\nsamples = 47\nvalue = [[56.8356]\n[41.5068]\n[38.3699]]"] ;
102 -> 106 ;
107 [label="impurity = 1526.8553\nsamples = 32\nvalue = [[68.8936]\n[49.9574]\n[37.6809]]"] ;
106 -> 107 ;
108 [label="impurity = 235.9196\nsamples = 15\nvalue = [[35.0385]\n[26.2308]\n[39.6154]]"] ;
106 -> 108 ;
109 [label="X[0] <= 238.5\nimpurity = 1021.9582\nsamples = 194\nvalue = [[104.5278]\n[99.5556]\n[69.6605]]"] ;
93 -> 109 ;
110 [label="X[1] <= 497.5\nimpurity = 481.5316\nsamples = 25\nvalue = [[142.0465]\n[145.5581]\n[94.6977]]"] ;
109 -> 110 ;
111 [label="X[0] <= 201.5\nimpurity = 430.58\nsamples = 4\nvalue = [[109.9]\n[121.2]\n[78.9]]"] ;
110 -> 111 ;
112 [label="impurity = 0.0\nsamples = 1\nvalue = [[154.0]\n[159.0]\n[105.0]]"] ;
111 -> 112 ;
113 [label="impurity = 115.8438\nsamples = 3\nvalue = [[98.875]\n[111.75]\n[72.375]]"] ;
111 -> 113 ;
114 [label="X[1] <= 553.0\nimpurity = 250.0165\nsamples = 21\nvalue = [[151.7879]\n[152.9394]\n[99.4848]]"] ;
110 -> 114 ;
115 [label="impurity = 92.5097\nsamples = 13\nvalue = [[164.6316]\n[163.2632]\n[103.0526]]"] ;
114 -> 115 ;
116 [label="impurity = 160.6514\nsamples = 8\nvalue = [[134.3571]\n[138.9286]\n[94.6429]]"] ;
114 -> 116 ;
117 [label="X[0] <= 453.5\nimpurity = 860.5352\nsamples = 169\nvalue = [[98.7865]\n[92.516]\n[65.8292]]"] ;
109 -> 117 ;
118 [label="X[0] <= 344.5\nimpurity = 661.0544\nsamples = 149\nvalue = [[102.908]\n[99.028]\n[68.384]]"] ;
117 -> 118 ;
119 [label="impurity = 327.4774\nsamples = 72\nvalue = [[82.3636]\n[90.2149]\n[70.0331]]"] ;
118 -> 119 ;
120 [label="impurity = 669.4865\nsamples = 77\nvalue = [[122.1783]\n[107.2946]\n[66.8372]]"] ;
118 -> 120 ;
121 [label="X[1] <= 539.0\nimpurity = 862.9795\nsamples = 20\nvalue = [[65.5484]\n[40.0]\n[45.2258]]"] ;
117 -> 121 ;
122 [label="impurity = 131.8393\nsamples = 12\nvalue = [[38.7895]\n[23.1579]\n[39.7895]]"] ;
121 -> 122 ;
123 [label="impurity = 617.3125\nsamples = 8\nvalue = [[107.9167]\n[66.6667]\n[53.8333]]"] ;
121 -> 123 ;
124 [label="impurity = 1071.8354\nsamples = 1443\nvalue = [[56.4504]\n[36.7105]\n[40.6277]]"] ;
0 -> 124 [labeldistance=2.5, labelangle=-45, headlabel="False"] ;
}
